\data\
ngram 1=149
ngram 2=0
ngram 3=0

\1-grams:
-2.5590935	<unk>	0
0	<s>	-0.830287
-1.4433503	</s>	0
-1.3937318	appelle	-1.6
-1.3937318	moi	-1.6
-1.3937318	appelez	-1.6
-1.3937318	ella	-1.6
-1.3937318	j'ai	-1.6
-1.3937318	demandé	-1.6
-1.3937318	d'appeler	-1.6
-1.3937318	je	-1.6
-1.3937318	voulais	-1.6
-1.3937318	appeler	-1.6
-1.3937318	le	-1.6
-1.3937318	premier	-1.6
-1.3937318	numéro	-1.6
-1.3937318	de	-1.6
-1.3937318	il	-1.6
-1.3937318	faut	-1.6
-1.3937318	l'appeler	-1.6
-1.3937318	son	-1.6
-1.3937318	téléphone	-1.6
-1.3937318	pour	-1.6
-1.3937318	j'aimerais	-1.6
-1.3937318	veux	-1.6
-1.3937318	s'il	-1.6
-1.3937318	vous	-1.6
-1.3937318	plaît	-1.6
-1.3937318	te	-1.6
-1.3937318	lance	-1.6
-1.3937318	faites	-1.6
-1.3937318	un	-1.6
-1.3937318	appel	-1.6
-1.3937318	à	-1.6
-1.3937318	tu	-1.6
-1.3937318	peux	-1.6
-1.3937318	m'appeler	-1.6
-1.3937318	lancer	-1.6
-1.3937318	j'appelle	-1.6
-1.3937318	deux	-1.6
-1.3937318	bonjour	-1.6
-1.3937318	maman	-1.6
-1.3937318	contacte	-1.6
-1.3937318	voudrais	-1.6
-1.3937318	que	-1.6
-1.3937318	m'appelles	-1.6
-1.3937318	alexa	-1.6
-1.3937318	peu	-1.6
-1.3937318	maintenant	-1.6
-1.3937318	bon	-1.6
-1.3937318	envie	-1.6
-1.3937318	nom	-1.6
-1.3937318	lancez	-1.6
-1.3937318	dit	-1.6
-1.3937318	sur	-1.6
-1.3937318	sim	-1.6
-1.3937318	appelles	-1.6
-1.3937318	trois	-1.6
-1.3937318	cent	-1.6
-1.3937318	siri	-1.6
-1.3937318	dans	-1.6
-1.3937318	mes	-1.6
-1.3937318	contacts	-1.6
-1.3937318	dis	-1.6
-1.3937318	la	-1.6
-1.3937318	google	-1.6
-1.3937318	avec	-1.6
-1.3937318	mon	-1.6
-1.3937318	normal	-1.6
-1.3937318	contactez	-1.6
-1.3937318	huit	-1.6
-1.3937318	deuxième	-1.6
-1.3937318	contact	-1.6
-1.3937318	joindre	-1.6
-1.3937318	treize	-1.6
-1.3937318	joignez	-1.6
-1.3937318	kerry	-1.6
-1.3937318	quatre	-1.6
-1.3937318	m'appelez	-1.6
-1.3937318	besoin	-1.6
-1.3937318	oui	-1.6
-1.3937318	d'abord	-1.6
-1.3937318	six	-1.6
-1.3937318	douze	-1.6
-1.3937318	marie	-1.6
-1.3937318	france	-1.6
-1.3937318	zéro	-1.6
-1.3937318	cinq	-1.6
-1.3937318	solo	-1.6
-1.3937318	ne	-1.6
-1.3937318	sais	-1.6
-1.3937318	pas	-1.6
-1.3937318	ce	-1.6
-1.3937318	veut	-1.6
-1.3937318	dire	-1.6
-1.3937318	franck	-1.6
-1.3937318	sept	-1.6
-1.3937318	passe	-1.6
-1.3937318	composez	-1.6
-1.3937318	non	-1.6
-1.3937318	disais	-1.6
-1.3937318	faire	-1.6
-1.3937318	orange	-1.6
-1.3937318	airtel	-1.6
-1.3937318	réponds	-1.6
-1.3937318	demande	-1.6
-1.3937318	l'appel	-1.6
-1.3937318	chez	-1.6
-1.3937318	allô	-1.6
-1.3937318	conversation	-1.6
-1.3937318	papa	-1.6
-1.3937318	écrire	-1.6
-1.3937318	t'aime	-1.6
-1.3937318	viens	-1.6
-1.3937318	petit	-1.6
-1.3937318	frère	-1.6
-1.3937318	ma	-1.6
-1.3937318	écoutez	-1.6
-1.3937318	qui	-1.6
-1.3937318	termine	-1.6
-1.3937318	par	-1.6
-1.3937318	trente	-1.6
-1.3937318	c'est	-1.6
-1.3937318	sixième	-1.6
-1.3937318	au	-1.6
-1.3937318	dois	-1.6
-1.3937318	contacter	-1.6
-1.3937318	téléphonez	-1.6
-1.3937318	veuillez	-1.6
-1.3937318	fais	-1.6
-1.3937318	moov	-1.6
-1.3937318	bah	-1.6
-1.3937318	pouvez	-1.6
-1.3937318	directement	-1.6
-1.3937318	désormais	-1.6
-1.3937318	appelé	-1.6
-1.3937318	message	-1.6
-1.3937318	envoie	-1.6
-1.3937318	coucou	-1.6
-1.3937318	voisin	-1.6
-1.3937318	du	-1.6
-1.3937318	notre	-1.6
-1.3937318	issouf	-1.6
-1.3937318	encore	-1.6
-1.3937318	donc	-1.6
-1.3937318	juste	-1.6
-1.3937318	holà	-1.6
-1.3937318	téléphoner	-1.6
-1.3937318	t'ai	-1.6

\2-grams:
-0.5775585	<s> <unk>	-1.5

\3-grams:
-0.4792529	<s> <unk> </s>

\end\
